digraph Tree {
node [shape=box, fontname="helvetica"] ;
edge [fontname="helvetica"] ;
0 [label="x[20] <= 0.5\nentropy = 0.725\nsamples = 3523\nvalue = [2, 4945, 335, 159, 77, 29, 15, 9, 2, 3, 2]"] ;
1 [label="x[51] <= 2.5\nentropy = 0.535\nsamples = 3004\nvalue = [2.0, 4395.0, 122.0, 90.0, 63.0, 28.0, 15.0, 9.0, 2.0\n3.0, 2.0]"] ;
0 -> 1 [labeldistance=2.5, labelangle=45, headlabel="True"] ;
2 [label="x[73] <= 0.5\nentropy = 0.743\nsamples = 1664\nvalue = [2, 2348, 71, 85, 60, 27, 15, 9, 2, 3, 2]"] ;
1 -> 2 ;
3 [label="entropy = 0.0\nsamples = 417\nvalue = [0, 649, 0, 0, 0, 0, 0, 0, 0, 0, 0]"] ;
2 -> 3 ;
4 [label="x[6] <= 4.0\nentropy = 0.926\nsamples = 1247\nvalue = [2, 1699, 71, 85, 60, 27, 15, 9, 2, 3, 2]"] ;
2 -> 4 ;
5 [label="x[41] <= 18.5\nentropy = 2.619\nsamples = 231\nvalue = [0, 89, 70, 85, 60, 27, 15, 9, 2, 3, 2]"] ;
4 -> 5 ;
6 [label="x[67] <= 0.5\nentropy = 2.504\nsamples = 126\nvalue = [0, 55, 46, 38, 25, 12, 6, 5, 0, 3, 0]"] ;
5 -> 6 ;
7 [label="x[39] <= 15.5\nentropy = 1.944\nsamples = 56\nvalue = [0.0, 31.0, 26.0, 22.0, 6.0, 2.0, 0.0, 0.0, 0.0, 0.0\n0.0]"] ;
6 -> 7 ;
8 [label="x[31] <= 18.0\nentropy = 0.949\nsamples = 12\nvalue = [0, 12, 7, 0, 0, 0, 0, 0, 0, 0, 0]"] ;
7 -> 8 ;
9 [label="entropy = 0.0\nsamples = 2\nvalue = [0, 0, 5, 0, 0, 0, 0, 0, 0, 0, 0]"] ;
8 -> 9 ;
10 [label="x[34] <= 14.5\nentropy = 0.592\nsamples = 10\nvalue = [0, 12, 2, 0, 0, 0, 0, 0, 0, 0, 0]"] ;
8 -> 10 ;
11 [label="entropy = 0.0\nsamples = 4\nvalue = [0, 6, 0, 0, 0, 0, 0, 0, 0, 0, 0]"] ;
10 -> 11 ;
12 [label="x[27] <= 7.5\nentropy = 0.811\nsamples = 6\nvalue = [0, 6, 2, 0, 0, 0, 0, 0, 0, 0, 0]"] ;
10 -> 12 ;
13 [label="entropy = 0.0\nsamples = 2\nvalue = [0, 4, 0, 0, 0, 0, 0, 0, 0, 0, 0]"] ;
12 -> 13 ;
14 [label="entropy = 1.0\nsamples = 4\nvalue = [0, 2, 2, 0, 0, 0, 0, 0, 0, 0, 0]"] ;
12 -> 14 ;
15 [label="x[31] <= 36.0\nentropy = 2.013\nsamples = 44\nvalue = [0, 19, 19, 22, 6, 2, 0, 0, 0, 0, 0]"] ;
7 -> 15 ;
16 [label="x[46] <= 4.5\nentropy = 1.899\nsamples = 41\nvalue = [0, 19, 19, 18, 2, 2, 0, 0, 0, 0, 0]"] ;
15 -> 16 ;
17 [label="x[25] <= 30.5\nentropy = 1.0\nsamples = 7\nvalue = [0, 6, 6, 0, 0, 0, 0, 0, 0, 0, 0]"] ;
16 -> 17 ;
18 [label="entropy = 0.0\nsamples = 3\nvalue = [0, 5, 0, 0, 0, 0, 0, 0, 0, 0, 0]"] ;
17 -> 18 ;
19 [label="entropy = 0.592\nsamples = 4\nvalue = [0, 1, 6, 0, 0, 0, 0, 0, 0, 0, 0]"] ;
17 -> 19 ;
20 [label="x[41] <= 10.5\nentropy = 1.934\nsamples = 34\nvalue = [0, 13, 13, 18, 2, 2, 0, 0, 0, 0, 0]"] ;
16 -> 20 ;
21 [label="entropy = 1.683\nsamples = 18\nvalue = [0, 4, 4, 17, 1, 2, 0, 0, 0, 0, 0]"] ;
20 -> 21 ;
22 [label="entropy = 1.469\nsamples = 16\nvalue = [0, 9, 9, 1, 1, 0, 0, 0, 0, 0, 0]"] ;
20 -> 22 ;
23 [label="x[4] <= 2014.0\nentropy = 1.0\nsamples = 3\nvalue = [0, 0, 0, 4, 4, 0, 0, 0, 0, 0, 0]"] ;
15 -> 23 ;
24 [label="entropy = 0.0\nsamples = 1\nvalue = [0, 0, 0, 4, 0, 0, 0, 0, 0, 0, 0]"] ;
23 -> 24 ;
25 [label="entropy = 0.0\nsamples = 2\nvalue = [0, 0, 0, 0, 4, 0, 0, 0, 0, 0, 0]"] ;
23 -> 25 ;
26 [label="x[45] <= 14.5\nentropy = 2.742\nsamples = 70\nvalue = [0.0, 24.0, 20.0, 16.0, 19.0, 10.0, 6.0, 5.0, 0.0\n3.0, 0.0]"] ;
6 -> 26 ;
27 [label="x[41] <= 17.0\nentropy = 2.745\nsamples = 31\nvalue = [0.0, 10.0, 6.0, 2.0, 11.0, 9.0, 4.0, 2.0, 0.0, 3.0\n0.0]"] ;
26 -> 27 ;
28 [label="x[0] <= 119.0\nentropy = 2.731\nsamples = 27\nvalue = [0, 5, 6, 2, 11, 9, 4, 2, 0, 2, 0]"] ;
27 -> 28 ;
29 [label="x[34] <= 14.5\nentropy = 1.325\nsamples = 7\nvalue = [0, 5, 6, 1, 0, 0, 0, 0, 0, 0, 0]"] ;
28 -> 29 ;
30 [label="entropy = 0.65\nsamples = 4\nvalue = [0, 5, 0, 1, 0, 0, 0, 0, 0, 0, 0]"] ;
29 -> 30 ;
31 [label="entropy = 0.0\nsamples = 3\nvalue = [0, 0, 6, 0, 0, 0, 0, 0, 0, 0, 0]"] ;
29 -> 31 ;
32 [label="x[30] <= 4.0\nentropy = 2.148\nsamples = 20\nvalue = [0, 0, 0, 1, 11, 9, 4, 2, 0, 2, 0]"] ;
28 -> 32 ;
33 [label="entropy = 1.79\nsamples = 8\nvalue = [0, 0, 0, 0, 0, 5, 3, 1, 0, 2, 0]"] ;
32 -> 33 ;
34 [label="entropy = 1.611\nsamples = 12\nvalue = [0, 0, 0, 1, 11, 4, 1, 1, 0, 0, 0]"] ;
32 -> 34 ;
35 [label="x[1] <= 1.5\nentropy = 0.65\nsamples = 4\nvalue = [0, 5, 0, 0, 0, 0, 0, 0, 0, 1, 0]"] ;
27 -> 35 ;
36 [label="entropy = 0.0\nsamples = 1\nvalue = [0, 0, 0, 0, 0, 0, 0, 0, 0, 1, 0]"] ;
35 -> 36 ;
37 [label="entropy = 0.0\nsamples = 3\nvalue = [0, 5, 0, 0, 0, 0, 0, 0, 0, 0, 0]"] ;
35 -> 37 ;
38 [label="x[38] <= 29.5\nentropy = 2.403\nsamples = 39\nvalue = [0, 14, 14, 14, 8, 1, 2, 3, 0, 0, 0]"] ;
26 -> 38 ;
39 [label="x[44] <= 0.5\nentropy = 2.435\nsamples = 23\nvalue = [0, 4, 9, 12, 4, 1, 2, 3, 0, 0, 0]"] ;
38 -> 39 ;
40 [label="x[26] <= 27.0\nentropy = 1.75\nsamples = 5\nvalue = [0, 1, 0, 0, 4, 0, 1, 2, 0, 0, 0]"] ;
39 -> 40 ;
41 [label="entropy = 0.0\nsamples = 2\nvalue = [0, 0, 0, 0, 4, 0, 0, 0, 0, 0, 0]"] ;
40 -> 41 ;
42 [label="entropy = 1.5\nsamples = 3\nvalue = [0, 1, 0, 0, 0, 0, 1, 2, 0, 0, 0]"] ;
40 -> 42 ;
43 [label="x[0] <= 109.0\nentropy = 1.929\nsamples = 18\nvalue = [0, 3, 9, 12, 0, 1, 1, 1, 0, 0, 0]"] ;
39 -> 43 ;
44 [label="entropy = 1.14\nsamples = 8\nvalue = [0, 3, 9, 1, 0, 0, 0, 0, 0, 0, 0]"] ;
43 -> 44 ;
45 [label="entropy = 1.089\nsamples = 10\nvalue = [0, 0, 0, 11, 0, 1, 1, 1, 0, 0, 0]"] ;
43 -> 45 ;
46 [label="x[0] <= 103.5\nentropy = 1.781\nsamples = 16\nvalue = [0, 10, 5, 2, 4, 0, 0, 0, 0, 0, 0]"] ;
38 -> 46 ;
47 [label="x[26] <= 37.5\nentropy = 0.918\nsamples = 12\nvalue = [0, 10, 5, 0, 0, 0, 0, 0, 0, 0, 0]"] ;
46 -> 47 ;
48 [label="entropy = 0.985\nsamples = 6\nvalue = [0, 3, 4, 0, 0, 0, 0, 0, 0, 0, 0]"] ;
47 -> 48 ;
49 [label="entropy = 0.544\nsamples = 6\nvalue = [0, 7, 1, 0, 0, 0, 0, 0, 0, 0, 0]"] ;
47 -> 49 ;
50 [label="x[47] <= 20.5\nentropy = 0.918\nsamples = 4\nvalue = [0, 0, 0, 2, 4, 0, 0, 0, 0, 0, 0]"] ;
46 -> 50 ;
51 [label="entropy = 0.0\nsamples = 1\nvalue = [0, 0, 0, 1, 0, 0, 0, 0, 0, 0, 0]"] ;
50 -> 51 ;
52 [label="entropy = 0.722\nsamples = 3\nvalue = [0, 0, 0, 1, 4, 0, 0, 0, 0, 0, 0]"] ;
50 -> 52 ;
53 [label="x[26] <= 2.5\nentropy = 2.643\nsamples = 105\nvalue = [0, 34, 24, 47, 35, 15, 9, 4, 2, 0, 2]"] ;
5 -> 53 ;
54 [label="x[28] <= 21.0\nentropy = 2.385\nsamples = 15\nvalue = [0, 0, 4, 3, 3, 9, 0, 3, 2, 0, 0]"] ;
53 -> 54 ;
55 [label="x[30] <= 3.5\nentropy = 1.795\nsamples = 9\nvalue = [0, 0, 3, 1, 1, 9, 0, 0, 2, 0, 0]"] ;
54 -> 55 ;
56 [label="x[4] <= 2021.5\nentropy = 1.041\nsamples = 7\nvalue = [0, 0, 0, 0, 1, 9, 0, 0, 2, 0, 0]"] ;
55 -> 56 ;
57 [label="x[41] <= 28.0\nentropy = 0.469\nsamples = 6\nvalue = [0, 0, 0, 0, 1, 9, 0, 0, 0, 0, 0]"] ;
56 -> 57 ;
58 [label="entropy = 0.0\nsamples = 5\nvalue = [0, 0, 0, 0, 0, 9, 0, 0, 0, 0, 0]"] ;
57 -> 58 ;
59 [label="entropy = 0.0\nsamples = 1\nvalue = [0, 0, 0, 0, 1, 0, 0, 0, 0, 0, 0]"] ;
57 -> 59 ;
60 [label="entropy = 0.0\nsamples = 1\nvalue = [0, 0, 0, 0, 0, 0, 0, 0, 2, 0, 0]"] ;
56 -> 60 ;
61 [label="x[44] <= 22.0\nentropy = 0.811\nsamples = 2\nvalue = [0, 0, 3, 1, 0, 0, 0, 0, 0, 0, 0]"] ;
55 -> 61 ;
62 [label="entropy = 0.0\nsamples = 1\nvalue = [0, 0, 0, 1, 0, 0, 0, 0, 0, 0, 0]"] ;
61 -> 62 ;
63 [label="entropy = 0.0\nsamples = 1\nvalue = [0, 0, 3, 0, 0, 0, 0, 0, 0, 0, 0]"] ;
61 -> 63 ;
64 [label="x[0] <= 186.0\nentropy = 1.906\nsamples = 6\nvalue = [0, 0, 1, 2, 2, 0, 0, 3, 0, 0, 0]"] ;
54 -> 64 ;
65 [label="x[36] <= 6.0\nentropy = 1.0\nsamples = 4\nvalue = [0, 0, 0, 2, 2, 0, 0, 0, 0, 0, 0]"] ;
64 -> 65 ;
66 [label="entropy = 0.0\nsamples = 1\nvalue = [0, 0, 0, 0, 1, 0, 0, 0, 0, 0, 0]"] ;
65 -> 66 ;
67 [label="x[26] <= 1.5\nentropy = 0.918\nsamples = 3\nvalue = [0, 0, 0, 2, 1, 0, 0, 0, 0, 0, 0]"] ;
65 -> 67 ;
68 [label="entropy = 1.0\nsamples = 2\nvalue = [0, 0, 0, 1, 1, 0, 0, 0, 0, 0, 0]"] ;
67 -> 68 ;
69 [label="entropy = 0.0\nsamples = 1\nvalue = [0, 0, 0, 1, 0, 0, 0, 0, 0, 0, 0]"] ;
67 -> 69 ;
70 [label="x[48] <= 1.5\nentropy = 0.811\nsamples = 2\nvalue = [0, 0, 1, 0, 0, 0, 0, 3, 0, 0, 0]"] ;
64 -> 70 ;
71 [label="entropy = 0.0\nsamples = 1\nvalue = [0, 0, 0, 0, 0, 0, 0, 3, 0, 0, 0]"] ;
70 -> 71 ;
72 [label="entropy = 0.0\nsamples = 1\nvalue = [0, 0, 1, 0, 0, 0, 0, 0, 0, 0, 0]"] ;
70 -> 72 ;
73 [label="x[33] <= 5.5\nentropy = 2.441\nsamples = 90\nvalue = [0, 34, 20, 44, 32, 6, 9, 1, 0, 0, 2]"] ;
53 -> 73 ;
74 [label="x[36] <= 16.5\nentropy = 2.26\nsamples = 34\nvalue = [0.0, 2.0, 7.0, 15.0, 23.0, 3.0, 7.0, 1.0, 0.0, 0.0\n0.0]"] ;
73 -> 74 ;
75 [label="x[0] <= 192.5\nentropy = 2.294\nsamples = 29\nvalue = [0, 2, 7, 15, 14, 3, 7, 0, 0, 0, 0]"] ;
74 -> 75 ;
76 [label="x[0] <= 161.5\nentropy = 1.565\nsamples = 12\nvalue = [0, 2, 4, 14, 3, 0, 0, 0, 0, 0, 0]"] ;
75 -> 76 ;
77 [label="entropy = 1.959\nsamples = 9\nvalue = [0, 2, 4, 3, 3, 0, 0, 0, 0, 0, 0]"] ;
76 -> 77 ;
78 [label="entropy = 0.0\nsamples = 3\nvalue = [0, 0, 0, 11, 0, 0, 0, 0, 0, 0, 0]"] ;
76 -> 78 ;
79 [label="x[30] <= 1.5\nentropy = 1.955\nsamples = 17\nvalue = [0.0, 0.0, 3.0, 1.0, 11.0, 3.0, 7.0, 0.0, 0.0, 0.0\n0.0]"] ;
75 -> 79 ;
80 [label="entropy = 1.149\nsamples = 9\nvalue = [0, 0, 2, 0, 10, 0, 2, 0, 0, 0, 0]"] ;
79 -> 80 ;
81 [label="entropy = 1.972\nsamples = 8\nvalue = [0, 0, 1, 1, 1, 3, 5, 0, 0, 0, 0]"] ;
79 -> 81 ;
82 [label="x[39] <= 37.0\nentropy = 0.469\nsamples = 5\nvalue = [0, 0, 0, 0, 9, 0, 0, 1, 0, 0, 0]"] ;
74 -> 82 ;
83 [label="entropy = 0.0\nsamples = 4\nvalue = [0, 0, 0, 0, 9, 0, 0, 0, 0, 0, 0]"] ;
82 -> 83 ;
84 [label="entropy = 0.0\nsamples = 1\nvalue = [0, 0, 0, 0, 0, 0, 0, 1, 0, 0, 0]"] ;
82 -> 84 ;
85 [label="x[27] <= 3.5\nentropy = 2.2\nsamples = 56\nvalue = [0.0, 32.0, 13.0, 29.0, 9.0, 3.0, 2.0, 0.0, 0.0, 0.0\n2.0]"] ;
73 -> 85 ;
86 [label="x[24] <= 12.5\nentropy = 2.627\nsamples = 18\nvalue = [0, 6, 7, 4, 2, 3, 2, 0, 0, 0, 2]"] ;
85 -> 86 ;
87 [label="x[40] <= 25.5\nentropy = 2.226\nsamples = 13\nvalue = [0, 1, 7, 4, 1, 2, 0, 0, 0, 0, 2]"] ;
86 -> 87 ;
88 [label="entropy = 0.0\nsamples = 1\nvalue = [0, 0, 0, 0, 0, 0, 0, 0, 0, 0, 2]"] ;
87 -> 88 ;
89 [label="entropy = 1.93\nsamples = 12\nvalue = [0, 1, 7, 4, 1, 2, 0, 0, 0, 0, 0]"] ;
87 -> 89 ;
90 [label="x[28] <= 13.5\nentropy = 1.658\nsamples = 5\nvalue = [0, 5, 0, 0, 1, 1, 2, 0, 0, 0, 0]"] ;
86 -> 90 ;
91 [label="entropy = 0.0\nsamples = 1\nvalue = [0, 0, 0, 0, 0, 0, 2, 0, 0, 0, 0]"] ;
90 -> 91 ;
92 [label="entropy = 1.149\nsamples = 4\nvalue = [0, 5, 0, 0, 1, 1, 0, 0, 0, 0, 0]"] ;
90 -> 92 ;
93 [label="x[30] <= 7.5\nentropy = 1.727\nsamples = 38\nvalue = [0, 26, 6, 25, 7, 0, 0, 0, 0, 0, 0]"] ;
85 -> 93 ;
94 [label="x[3] <= 1.5\nentropy = 1.614\nsamples = 14\nvalue = [0, 2, 4, 14, 4, 0, 0, 0, 0, 0, 0]"] ;
93 -> 94 ;
95 [label="entropy = 1.436\nsamples = 9\nvalue = [0, 0, 4, 10, 4, 0, 0, 0, 0, 0, 0]"] ;
94 -> 95 ;
96 [label="entropy = 0.918\nsamples = 5\nvalue = [0, 2, 0, 4, 0, 0, 0, 0, 0, 0, 0]"] ;
94 -> 96 ;
97 [label="x[0] <= 87.5\nentropy = 1.451\nsamples = 24\nvalue = [0, 24, 2, 11, 3, 0, 0, 0, 0, 0, 0]"] ;
93 -> 97 ;
98 [label="entropy = 0.391\nsamples = 16\nvalue = [0, 24, 2, 0, 0, 0, 0, 0, 0, 0, 0]"] ;
97 -> 98 ;
99 [label="entropy = 0.75\nsamples = 8\nvalue = [0, 0, 0, 11, 3, 0, 0, 0, 0, 0, 0]"] ;
97 -> 99 ;
100 [label="x[45] <= 39.5\nentropy = 0.021\nsamples = 1016\nvalue = [2, 1610, 1, 0, 0, 0, 0, 0, 0, 0, 0]"] ;
4 -> 100 ;
101 [label="x[45] <= 6.5\nentropy = 0.008\nsamples = 999\nvalue = [0, 1586, 1, 0, 0, 0, 0, 0, 0, 0, 0]"] ;
100 -> 101 ;
102 [label="x[32] <= 12.5\nentropy = 0.036\nsamples = 168\nvalue = [0, 261, 1, 0, 0, 0, 0, 0, 0, 0, 0]"] ;
101 -> 102 ;
103 [label="entropy = 0.0\nsamples = 139\nvalue = [0, 216, 0, 0, 0, 0, 0, 0, 0, 0, 0]"] ;
102 -> 103 ;
104 [label="x[28] <= 26.5\nentropy = 0.151\nsamples = 29\nvalue = [0, 45, 1, 0, 0, 0, 0, 0, 0, 0, 0]"] ;
102 -> 104 ;
105 [label="entropy = 0.0\nsamples = 22\nvalue = [0, 36, 0, 0, 0, 0, 0, 0, 0, 0, 0]"] ;
104 -> 105 ;
106 [label="x[17] <= 0.5\nentropy = 0.469\nsamples = 7\nvalue = [0, 9, 1, 0, 0, 0, 0, 0, 0, 0, 0]"] ;
104 -> 106 ;
107 [label="entropy = 0.0\nsamples = 6\nvalue = [0, 9, 0, 0, 0, 0, 0, 0, 0, 0, 0]"] ;
106 -> 107 ;
108 [label="entropy = 0.0\nsamples = 1\nvalue = [0, 0, 1, 0, 0, 0, 0, 0, 0, 0, 0]"] ;
106 -> 108 ;
109 [label="entropy = 0.0\nsamples = 831\nvalue = [0, 1325, 0, 0, 0, 0, 0, 0, 0, 0, 0]"] ;
101 -> 109 ;
110 [label="x[44] <= 22.0\nentropy = 0.391\nsamples = 17\nvalue = [2, 24, 0, 0, 0, 0, 0, 0, 0, 0, 0]"] ;
100 -> 110 ;
111 [label="entropy = 0.0\nsamples = 15\nvalue = [0, 23, 0, 0, 0, 0, 0, 0, 0, 0, 0]"] ;
110 -> 111 ;
112 [label="x[18] <= 0.5\nentropy = 0.918\nsamples = 2\nvalue = [2, 1, 0, 0, 0, 0, 0, 0, 0, 0, 0]"] ;
110 -> 112 ;
113 [label="entropy = 0.0\nsamples = 1\nvalue = [0, 1, 0, 0, 0, 0, 0, 0, 0, 0, 0]"] ;
112 -> 113 ;
114 [label="entropy = 0.0\nsamples = 1\nvalue = [2, 0, 0, 0, 0, 0, 0, 0, 0, 0, 0]"] ;
112 -> 114 ;
115 [label="x[49] <= 1.5\nentropy = 0.21\nsamples = 1340\nvalue = [0, 2047, 51, 5, 3, 1, 0, 0, 0, 0, 0]"] ;
1 -> 115 ;
116 [label="x[23] <= 0.5\nentropy = 0.385\nsamples = 607\nvalue = [0.0, 909.0, 51.0, 5.0, 3.0, 1.0, 0.0, 0.0, 0.0, 0.0\n0.0]"] ;
115 -> 116 ;
117 [label="x[16] <= 0.5\nentropy = 0.456\nsamples = 489\nvalue = [0.0, 714.0, 51.0, 5.0, 3.0, 1.0, 0.0, 0.0, 0.0, 0.0\n0.0]"] ;
116 -> 117 ;
118 [label="entropy = 0.0\nsamples = 366\nvalue = [0, 582, 0, 0, 0, 0, 0, 0, 0, 0, 0]"] ;
117 -> 118 ;
119 [label="x[33] <= 27.5\nentropy = 1.15\nsamples = 123\nvalue = [0, 132, 51, 5, 3, 1, 0, 0, 0, 0, 0]"] ;
117 -> 119 ;
120 [label="x[44] <= 25.5\nentropy = 1.199\nsamples = 114\nvalue = [0, 117, 51, 5, 3, 1, 0, 0, 0, 0, 0]"] ;
119 -> 120 ;
121 [label="x[26] <= 19.5\nentropy = 1.25\nsamples = 94\nvalue = [0, 95, 50, 4, 3, 1, 0, 0, 0, 0, 0]"] ;
120 -> 121 ;
122 [label="x[42] <= 17.5\nentropy = 1.201\nsamples = 40\nvalue = [0, 38, 30, 3, 0, 0, 0, 0, 0, 0, 0]"] ;
121 -> 122 ;
123 [label="x[31] <= 36.5\nentropy = 1.095\nsamples = 17\nvalue = [0, 6, 20, 2, 0, 0, 0, 0, 0, 0, 0]"] ;
122 -> 123 ;
124 [label="entropy = 0.722\nsamples = 15\nvalue = [0, 5, 20, 0, 0, 0, 0, 0, 0, 0, 0]"] ;
123 -> 124 ;
125 [label="entropy = 0.918\nsamples = 2\nvalue = [0, 1, 0, 2, 0, 0, 0, 0, 0, 0, 0]"] ;
123 -> 125 ;
126 [label="x[24] <= 5.0\nentropy = 0.933\nsamples = 23\nvalue = [0, 32, 10, 1, 0, 0, 0, 0, 0, 0, 0]"] ;
122 -> 126 ;
127 [label="entropy = 0.0\nsamples = 7\nvalue = [0, 13, 0, 0, 0, 0, 0, 0, 0, 0, 0]"] ;
126 -> 127 ;
128 [label="entropy = 1.109\nsamples = 16\nvalue = [0, 19, 10, 1, 0, 0, 0, 0, 0, 0, 0]"] ;
126 -> 128 ;
129 [label="x[41] <= 11.0\nentropy = 1.191\nsamples = 54\nvalue = [0.0, 57.0, 20.0, 1.0, 3.0, 1.0, 0.0, 0.0, 0.0, 0.0\n0.0]"] ;
121 -> 129 ;
130 [label="x[33] <= 9.5\nentropy = 1.334\nsamples = 41\nvalue = [0, 41, 20, 1, 3, 1, 0, 0, 0, 0, 0]"] ;
129 -> 130 ;
131 [label="entropy = 1.746\nsamples = 10\nvalue = [0, 7, 4, 0, 3, 1, 0, 0, 0, 0, 0]"] ;
130 -> 131 ;
132 [label="entropy = 1.026\nsamples = 31\nvalue = [0, 34, 16, 1, 0, 0, 0, 0, 0, 0, 0]"] ;
130 -> 132 ;
133 [label="entropy = 0.0\nsamples = 13\nvalue = [0, 16, 0, 0, 0, 0, 0, 0, 0, 0, 0]"] ;
129 -> 133 ;
134 [label="x[0] <= 241.5\nentropy = 0.497\nsamples = 20\nvalue = [0, 22, 1, 1, 0, 0, 0, 0, 0, 0, 0]"] ;
120 -> 134 ;
135 [label="entropy = 0.0\nsamples = 18\nvalue = [0, 22, 0, 0, 0, 0, 0, 0, 0, 0, 0]"] ;
134 -> 135 ;
136 [label="x[40] <= 31.0\nentropy = 1.0\nsamples = 2\nvalue = [0, 0, 1, 1, 0, 0, 0, 0, 0, 0, 0]"] ;
134 -> 136 ;
137 [label="entropy = 0.0\nsamples = 1\nvalue = [0, 0, 0, 1, 0, 0, 0, 0, 0, 0, 0]"] ;
136 -> 137 ;
138 [label="entropy = 0.0\nsamples = 1\nvalue = [0, 0, 1, 0, 0, 0, 0, 0, 0, 0, 0]"] ;
136 -> 138 ;
139 [label="entropy = 0.0\nsamples = 9\nvalue = [0, 15, 0, 0, 0, 0, 0, 0, 0, 0, 0]"] ;
119 -> 139 ;
140 [label="entropy = 0.0\nsamples = 118\nvalue = [0, 195, 0, 0, 0, 0, 0, 0, 0, 0, 0]"] ;
116 -> 140 ;
141 [label="entropy = 0.0\nsamples = 733\nvalue = [0, 1138, 0, 0, 0, 0, 0, 0, 0, 0, 0]"] ;
115 -> 141 ;
142 [label="x[73] <= 0.5\nentropy = 1.309\nsamples = 519\nvalue = [0, 550, 213, 69, 14, 1, 0, 0, 0, 0, 0]"] ;
0 -> 142 [labeldistance=2.5, labelangle=-45, headlabel="False"] ;
143 [label="entropy = 0.0\nsamples = 181\nvalue = [0, 294, 0, 0, 0, 0, 0, 0, 0, 0, 0]"] ;
142 -> 143 ;
144 [label="x[57] <= 0.5\nentropy = 1.57\nsamples = 338\nvalue = [0, 256, 213, 69, 14, 1, 0, 0, 0, 0, 0]"] ;
142 -> 144 ;
145 [label="x[48] <= 1.5\nentropy = 1.651\nsamples = 274\nvalue = [0.0, 176.0, 183.0, 69.0, 14.0, 1.0, 0.0, 0.0, 0.0\n0.0, 0.0]"] ;
144 -> 145 ;
146 [label="x[14] <= 0.5\nentropy = 1.738\nsamples = 139\nvalue = [0, 72, 93, 48, 8, 1, 0, 0, 0, 0, 0]"] ;
145 -> 146 ;
147 [label="x[46] <= 4.5\nentropy = 1.187\nsamples = 74\nvalue = [0, 70, 39, 6, 0, 0, 0, 0, 0, 0, 0]"] ;
146 -> 147 ;
148 [label="entropy = 0.0\nsamples = 9\nvalue = [0, 13, 0, 0, 0, 0, 0, 0, 0, 0, 0]"] ;
147 -> 148 ;
149 [label="x[46] <= 14.5\nentropy = 1.24\nsamples = 65\nvalue = [0, 57, 39, 6, 0, 0, 0, 0, 0, 0, 0]"] ;
147 -> 149 ;
150 [label="x[0] <= 236.0\nentropy = 1.212\nsamples = 17\nvalue = [0, 7, 20, 3, 0, 0, 0, 0, 0, 0, 0]"] ;
149 -> 150 ;
151 [label="x[24] <= 36.0\nentropy = 0.964\nsamples = 11\nvalue = [0, 7, 11, 0, 0, 0, 0, 0, 0, 0, 0]"] ;
150 -> 151 ;
152 [label="x[29] <= 17.0\nentropy = 0.896\nsamples = 10\nvalue = [0, 5, 11, 0, 0, 0, 0, 0, 0, 0, 0]"] ;
151 -> 152 ;
153 [label="entropy = 0.75\nsamples = 8\nvalue = [0, 3, 11, 0, 0, 0, 0, 0, 0, 0, 0]"] ;
152 -> 153 ;
154 [label="entropy = 0.0\nsamples = 2\nvalue = [0, 2, 0, 0, 0, 0, 0, 0, 0, 0, 0]"] ;
152 -> 154 ;
155 [label="entropy = 0.0\nsamples = 1\nvalue = [0, 2, 0, 0, 0, 0, 0, 0, 0, 0, 0]"] ;
151 -> 155 ;
156 [label="x[0] <= 253.0\nentropy = 0.811\nsamples = 6\nvalue = [0, 0, 9, 3, 0, 0, 0, 0, 0, 0, 0]"] ;
150 -> 156 ;
157 [label="entropy = 0.0\nsamples = 1\nvalue = [0, 0, 0, 3, 0, 0, 0, 0, 0, 0, 0]"] ;
156 -> 157 ;
158 [label="entropy = 0.0\nsamples = 5\nvalue = [0, 0, 9, 0, 0, 0, 0, 0, 0, 0, 0]"] ;
156 -> 158 ;
159 [label="x[36] <= 7.5\nentropy = 1.064\nsamples = 48\nvalue = [0, 50, 19, 3, 0, 0, 0, 0, 0, 0, 0]"] ;
149 -> 159 ;
160 [label="x[37] <= 8.0\nentropy = 1.16\nsamples = 12\nvalue = [0, 12, 2, 3, 0, 0, 0, 0, 0, 0, 0]"] ;
159 -> 160 ;
161 [label="x[44] <= 30.5\nentropy = 0.906\nsamples = 11\nvalue = [0, 12, 2, 1, 0, 0, 0, 0, 0, 0, 0]"] ;
160 -> 161 ;
162 [label="entropy = 0.414\nsamples = 8\nvalue = [0, 11, 1, 0, 0, 0, 0, 0, 0, 0, 0]"] ;
161 -> 162 ;
163 [label="entropy = 1.585\nsamples = 3\nvalue = [0, 1, 1, 1, 0, 0, 0, 0, 0, 0, 0]"] ;
161 -> 163 ;
164 [label="entropy = 0.0\nsamples = 1\nvalue = [0, 0, 0, 2, 0, 0, 0, 0, 0, 0, 0]"] ;
160 -> 164 ;
165 [label="x[1] <= 2.5\nentropy = 0.892\nsamples = 36\nvalue = [0, 38, 17, 0, 0, 0, 0, 0, 0, 0, 0]"] ;
159 -> 165 ;
166 [label="entropy = 0.0\nsamples = 4\nvalue = [0, 0, 5, 0, 0, 0, 0, 0, 0, 0, 0]"] ;
165 -> 166 ;
167 [label="x[34] <= 23.5\nentropy = 0.795\nsamples = 32\nvalue = [0, 38, 12, 0, 0, 0, 0, 0, 0, 0, 0]"] ;
165 -> 167 ;
168 [label="entropy = 0.391\nsamples = 15\nvalue = [0, 24, 2, 0, 0, 0, 0, 0, 0, 0, 0]"] ;
167 -> 168 ;
169 [label="entropy = 0.98\nsamples = 17\nvalue = [0, 14, 10, 0, 0, 0, 0, 0, 0, 0, 0]"] ;
167 -> 169 ;
170 [label="x[36] <= 24.0\nentropy = 1.478\nsamples = 65\nvalue = [0.0, 2.0, 54.0, 42.0, 8.0, 1.0, 0.0, 0.0, 0.0, 0.0\n0.0]"] ;
146 -> 170 ;
171 [label="x[42] <= 2.0\nentropy = 1.371\nsamples = 37\nvalue = [0, 2, 38, 19, 2, 1, 0, 0, 0, 0, 0]"] ;
170 -> 171 ;
172 [label="x[46] <= 35.0\nentropy = 0.469\nsamples = 6\nvalue = [0, 0, 0, 9, 0, 1, 0, 0, 0, 0, 0]"] ;
171 -> 172 ;
173 [label="entropy = 0.0\nsamples = 3\nvalue = [0, 0, 0, 7, 0, 0, 0, 0, 0, 0, 0]"] ;
172 -> 173 ;
174 [label="x[2] <= 29.5\nentropy = 0.918\nsamples = 3\nvalue = [0, 0, 0, 2, 0, 1, 0, 0, 0, 0, 0]"] ;
172 -> 174 ;
175 [label="entropy = 0.0\nsamples = 2\nvalue = [0, 0, 0, 2, 0, 0, 0, 0, 0, 0, 0]"] ;
174 -> 175 ;
176 [label="entropy = 0.0\nsamples = 1\nvalue = [0, 0, 0, 0, 0, 1, 0, 0, 0, 0, 0]"] ;
174 -> 176 ;
177 [label="x[47] <= 7.5\nentropy = 1.15\nsamples = 31\nvalue = [0, 2, 38, 10, 2, 0, 0, 0, 0, 0, 0]"] ;
171 -> 177 ;
178 [label="x[45] <= 27.5\nentropy = 0.974\nsamples = 28\nvalue = [0, 0, 36, 10, 2, 0, 0, 0, 0, 0, 0]"] ;
177 -> 178 ;
179 [label="x[30] <= 2.5\nentropy = 0.875\nsamples = 26\nvalue = [0, 0, 36, 7, 2, 0, 0, 0, 0, 0, 0]"] ;
178 -> 179 ;
180 [label="entropy = 0.937\nsamples = 11\nvalue = [0, 0, 11, 6, 0, 0, 0, 0, 0, 0, 0]"] ;
179 -> 180 ;
181 [label="entropy = 0.59\nsamples = 15\nvalue = [0, 0, 25, 1, 2, 0, 0, 0, 0, 0, 0]"] ;
179 -> 181 ;
182 [label="entropy = 0.0\nsamples = 2\nvalue = [0, 0, 0, 3, 0, 0, 0, 0, 0, 0, 0]"] ;
178 -> 182 ;
183 [label="x[43] <= 25.0\nentropy = 1.0\nsamples = 3\nvalue = [0, 2, 2, 0, 0, 0, 0, 0, 0, 0, 0]"] ;
177 -> 183 ;
184 [label="entropy = 0.0\nsamples = 2\nvalue = [0, 0, 2, 0, 0, 0, 0, 0, 0, 0, 0]"] ;
183 -> 184 ;
185 [label="entropy = 0.0\nsamples = 1\nvalue = [0, 2, 0, 0, 0, 0, 0, 0, 0, 0, 0]"] ;
183 -> 185 ;
186 [label="x[0] <= 259.0\nentropy = 1.413\nsamples = 28\nvalue = [0, 0, 16, 23, 6, 0, 0, 0, 0, 0, 0]"] ;
170 -> 186 ;
187 [label="x[46] <= 2.5\nentropy = 0.977\nsamples = 25\nvalue = [0, 0, 16, 23, 0, 0, 0, 0, 0, 0, 0]"] ;
186 -> 187 ;
188 [label="entropy = 0.0\nsamples = 6\nvalue = [0, 0, 8, 0, 0, 0, 0, 0, 0, 0, 0]"] ;
187 -> 188 ;
189 [label="x[37] <= 25.5\nentropy = 0.824\nsamples = 19\nvalue = [0, 0, 8, 23, 0, 0, 0, 0, 0, 0, 0]"] ;
187 -> 189 ;
190 [label="entropy = 0.0\nsamples = 1\nvalue = [0, 0, 1, 0, 0, 0, 0, 0, 0, 0, 0]"] ;
189 -> 190 ;
191 [label="x[47] <= 22.0\nentropy = 0.784\nsamples = 18\nvalue = [0, 0, 7, 23, 0, 0, 0, 0, 0, 0, 0]"] ;
189 -> 191 ;
192 [label="entropy = 0.619\nsamples = 14\nvalue = [0, 0, 4, 22, 0, 0, 0, 0, 0, 0, 0]"] ;
191 -> 192 ;
193 [label="entropy = 0.811\nsamples = 4\nvalue = [0, 0, 3, 1, 0, 0, 0, 0, 0, 0, 0]"] ;
191 -> 193 ;
194 [label="entropy = 0.0\nsamples = 3\nvalue = [0, 0, 0, 0, 6, 0, 0, 0, 0, 0, 0]"] ;
186 -> 194 ;
195 [label="x[31] <= 0.5\nentropy = 1.503\nsamples = 135\nvalue = [0, 104, 90, 21, 6, 0, 0, 0, 0, 0, 0]"] ;
145 -> 195 ;
196 [label="x[29] <= 2.5\nentropy = 0.985\nsamples = 5\nvalue = [0, 3, 0, 0, 4, 0, 0, 0, 0, 0, 0]"] ;
195 -> 196 ;
197 [label="entropy = 0.0\nsamples = 1\nvalue = [0, 1, 0, 0, 0, 0, 0, 0, 0, 0, 0]"] ;
196 -> 197 ;
198 [label="x[39] <= 31.0\nentropy = 0.918\nsamples = 4\nvalue = [0, 2, 0, 0, 4, 0, 0, 0, 0, 0, 0]"] ;
196 -> 198 ;
199 [label="x[10] <= 0.5\nentropy = 0.918\nsamples = 2\nvalue = [0, 1, 0, 0, 2, 0, 0, 0, 0, 0, 0]"] ;
198 -> 199 ;
200 [label="entropy = 0.0\nsamples = 1\nvalue = [0, 0, 0, 0, 2, 0, 0, 0, 0, 0, 0]"] ;
199 -> 200 ;
201 [label="entropy = 0.0\nsamples = 1\nvalue = [0, 1, 0, 0, 0, 0, 0, 0, 0, 0, 0]"] ;
199 -> 201 ;
202 [label="x[10] <= 0.5\nentropy = 0.918\nsamples = 2\nvalue = [0, 1, 0, 0, 2, 0, 0, 0, 0, 0, 0]"] ;
198 -> 202 ;
203 [label="entropy = 0.0\nsamples = 1\nvalue = [0, 0, 0, 0, 2, 0, 0, 0, 0, 0, 0]"] ;
202 -> 203 ;
204 [label="entropy = 0.0\nsamples = 1\nvalue = [0, 1, 0, 0, 0, 0, 0, 0, 0, 0, 0]"] ;
202 -> 204 ;
205 [label="x[0] <= 224.5\nentropy = 1.428\nsamples = 130\nvalue = [0.0, 101.0, 90.0, 21.0, 2.0, 0.0, 0.0, 0.0, 0.0, 0.0\n0.0]"] ;
195 -> 205 ;
206 [label="x[10] <= 0.5\nentropy = 1.21\nsamples = 84\nvalue = [0, 55, 71, 6, 0, 0, 0, 0, 0, 0, 0]"] ;
205 -> 206 ;
207 [label="x[0] <= 137.0\nentropy = 0.395\nsamples = 47\nvalue = [0, 0, 71, 6, 0, 0, 0, 0, 0, 0, 0]"] ;
206 -> 207 ;
208 [label="x[31] <= 16.5\nentropy = 0.985\nsamples = 4\nvalue = [0, 0, 3, 4, 0, 0, 0, 0, 0, 0, 0]"] ;
207 -> 208 ;
209 [label="entropy = 0.0\nsamples = 1\nvalue = [0, 0, 2, 0, 0, 0, 0, 0, 0, 0, 0]"] ;
208 -> 209 ;
210 [label="x[40] <= 19.5\nentropy = 0.722\nsamples = 3\nvalue = [0, 0, 1, 4, 0, 0, 0, 0, 0, 0, 0]"] ;
208 -> 210 ;
211 [label="entropy = 0.0\nsamples = 1\nvalue = [0, 0, 0, 2, 0, 0, 0, 0, 0, 0, 0]"] ;
210 -> 211 ;
212 [label="entropy = 0.918\nsamples = 2\nvalue = [0, 0, 1, 2, 0, 0, 0, 0, 0, 0, 0]"] ;
210 -> 212 ;
213 [label="x[24] <= 30.0\nentropy = 0.187\nsamples = 43\nvalue = [0, 0, 68, 2, 0, 0, 0, 0, 0, 0, 0]"] ;
207 -> 213 ;
214 [label="entropy = 0.0\nsamples = 32\nvalue = [0, 0, 53, 0, 0, 0, 0, 0, 0, 0, 0]"] ;
213 -> 214 ;
215 [label="x[35] <= 11.0\nentropy = 0.523\nsamples = 11\nvalue = [0, 0, 15, 2, 0, 0, 0, 0, 0, 0, 0]"] ;
213 -> 215 ;
216 [label="entropy = 0.0\nsamples = 1\nvalue = [0, 0, 0, 2, 0, 0, 0, 0, 0, 0, 0]"] ;
215 -> 216 ;
217 [label="entropy = 0.0\nsamples = 10\nvalue = [0, 0, 15, 0, 0, 0, 0, 0, 0, 0, 0]"] ;
215 -> 217 ;
218 [label="entropy = 0.0\nsamples = 37\nvalue = [0, 55, 0, 0, 0, 0, 0, 0, 0, 0, 0]"] ;
206 -> 218 ;
219 [label="x[10] <= 0.5\nentropy = 1.536\nsamples = 46\nvalue = [0.0, 46.0, 19.0, 15.0, 2.0, 0.0, 0.0, 0.0, 0.0, 0.0\n0.0]"] ;
205 -> 219 ;
220 [label="x[24] <= 10.5\nentropy = 1.39\nsamples = 22\nvalue = [0, 1, 19, 15, 2, 0, 0, 0, 0, 0, 0]"] ;
219 -> 220 ;
221 [label="x[41] <= 34.0\nentropy = 0.469\nsamples = 6\nvalue = [0, 0, 9, 1, 0, 0, 0, 0, 0, 0, 0]"] ;
220 -> 221 ;
222 [label="entropy = 0.0\nsamples = 5\nvalue = [0, 0, 9, 0, 0, 0, 0, 0, 0, 0, 0]"] ;
221 -> 222 ;
223 [label="entropy = 0.0\nsamples = 1\nvalue = [0, 0, 0, 1, 0, 0, 0, 0, 0, 0, 0]"] ;
221 -> 223 ;
224 [label="x[29] <= 15.0\nentropy = 1.476\nsamples = 16\nvalue = [0, 1, 10, 14, 2, 0, 0, 0, 0, 0, 0]"] ;
220 -> 224 ;
225 [label="x[33] <= 13.5\nentropy = 1.116\nsamples = 13\nvalue = [0, 1, 6, 14, 0, 0, 0, 0, 0, 0, 0]"] ;
224 -> 225 ;
226 [label="entropy = 0.669\nsamples = 9\nvalue = [0, 1, 1, 14, 0, 0, 0, 0, 0, 0, 0]"] ;
225 -> 226 ;
227 [label="entropy = 0.0\nsamples = 4\nvalue = [0, 0, 5, 0, 0, 0, 0, 0, 0, 0, 0]"] ;
225 -> 227 ;
228 [label="x[28] <= 20.5\nentropy = 0.918\nsamples = 3\nvalue = [0, 0, 4, 0, 2, 0, 0, 0, 0, 0, 0]"] ;
224 -> 228 ;
229 [label="entropy = 0.0\nsamples = 2\nvalue = [0, 0, 4, 0, 0, 0, 0, 0, 0, 0, 0]"] ;
228 -> 229 ;
230 [label="entropy = 0.0\nsamples = 1\nvalue = [0, 0, 0, 0, 2, 0, 0, 0, 0, 0, 0]"] ;
228 -> 230 ;
231 [label="entropy = 0.0\nsamples = 24\nvalue = [0, 45, 0, 0, 0, 0, 0, 0, 0, 0, 0]"] ;
219 -> 231 ;
232 [label="x[47] <= 12.5\nentropy = 0.845\nsamples = 64\nvalue = [0.0, 80.0, 30.0, 0.0, 0.0, 0.0, 0.0, 0.0, 0.0, 0.0\n0.0]"] ;
144 -> 232 ;
233 [label="x[28] <= 23.5\nentropy = 0.644\nsamples = 40\nvalue = [0, 56, 11, 0, 0, 0, 0, 0, 0, 0, 0]"] ;
232 -> 233 ;
234 [label="x[35] <= 5.5\nentropy = 0.337\nsamples = 28\nvalue = [0, 45, 3, 0, 0, 0, 0, 0, 0, 0, 0]"] ;
233 -> 234 ;
235 [label="x[2] <= 28.5\nentropy = 0.162\nsamples = 24\nvalue = [0, 41, 1, 0, 0, 0, 0, 0, 0, 0, 0]"] ;
234 -> 235 ;
236 [label="x[32] <= 22.5\nentropy = 0.918\nsamples = 3\nvalue = [0, 2, 1, 0, 0, 0, 0, 0, 0, 0, 0]"] ;
235 -> 236 ;
237 [label="entropy = 0.0\nsamples = 2\nvalue = [0, 2, 0, 0, 0, 0, 0, 0, 0, 0, 0]"] ;
236 -> 237 ;
238 [label="entropy = 0.0\nsamples = 1\nvalue = [0, 0, 1, 0, 0, 0, 0, 0, 0, 0, 0]"] ;
236 -> 238 ;
239 [label="entropy = 0.0\nsamples = 21\nvalue = [0, 39, 0, 0, 0, 0, 0, 0, 0, 0, 0]"] ;
235 -> 239 ;
240 [label="x[39] <= 12.5\nentropy = 0.918\nsamples = 4\nvalue = [0, 4, 2, 0, 0, 0, 0, 0, 0, 0, 0]"] ;
234 -> 240 ;
241 [label="entropy = 0.0\nsamples = 1\nvalue = [0, 0, 2, 0, 0, 0, 0, 0, 0, 0, 0]"] ;
240 -> 241 ;
242 [label="entropy = 0.0\nsamples = 3\nvalue = [0, 4, 0, 0, 0, 0, 0, 0, 0, 0, 0]"] ;
240 -> 242 ;
243 [label="x[1] <= 3.5\nentropy = 0.982\nsamples = 12\nvalue = [0, 11, 8, 0, 0, 0, 0, 0, 0, 0, 0]"] ;
233 -> 243 ;
244 [label="entropy = 0.0\nsamples = 6\nvalue = [0, 9, 0, 0, 0, 0, 0, 0, 0, 0, 0]"] ;
243 -> 244 ;
245 [label="x[3] <= 3.0\nentropy = 0.722\nsamples = 6\nvalue = [0, 2, 8, 0, 0, 0, 0, 0, 0, 0, 0]"] ;
243 -> 245 ;
246 [label="entropy = 0.0\nsamples = 2\nvalue = [0, 0, 4, 0, 0, 0, 0, 0, 0, 0, 0]"] ;
245 -> 246 ;
247 [label="x[40] <= 24.0\nentropy = 0.918\nsamples = 4\nvalue = [0, 2, 4, 0, 0, 0, 0, 0, 0, 0, 0]"] ;
245 -> 247 ;
248 [label="entropy = 0.0\nsamples = 1\nvalue = [0, 0, 2, 0, 0, 0, 0, 0, 0, 0, 0]"] ;
247 -> 248 ;
249 [label="x[43] <= 24.0\nentropy = 1.0\nsamples = 3\nvalue = [0, 2, 2, 0, 0, 0, 0, 0, 0, 0, 0]"] ;
247 -> 249 ;
250 [label="entropy = 0.0\nsamples = 1\nvalue = [0, 1, 0, 0, 0, 0, 0, 0, 0, 0, 0]"] ;
249 -> 250 ;
251 [label="x[5] <= 0.5\nentropy = 0.918\nsamples = 2\nvalue = [0, 1, 2, 0, 0, 0, 0, 0, 0, 0, 0]"] ;
249 -> 251 ;
252 [label="entropy = 0.0\nsamples = 1\nvalue = [0, 0, 2, 0, 0, 0, 0, 0, 0, 0, 0]"] ;
251 -> 252 ;
253 [label="entropy = 0.0\nsamples = 1\nvalue = [0, 1, 0, 0, 0, 0, 0, 0, 0, 0, 0]"] ;
251 -> 253 ;
254 [label="x[31] <= 12.5\nentropy = 0.99\nsamples = 24\nvalue = [0, 24, 19, 0, 0, 0, 0, 0, 0, 0, 0]"] ;
232 -> 254 ;
255 [label="x[4] <= 2017.5\nentropy = 0.902\nsamples = 12\nvalue = [0.0, 7.0, 15.0, 0.0, 0.0, 0.0, 0.0, 0.0, 0.0, 0.0\n0.0]"] ;
254 -> 255 ;
256 [label="entropy = 0.0\nsamples = 3\nvalue = [0, 6, 0, 0, 0, 0, 0, 0, 0, 0, 0]"] ;
255 -> 256 ;
257 [label="x[34] <= 1.0\nentropy = 0.337\nsamples = 9\nvalue = [0, 1, 15, 0, 0, 0, 0, 0, 0, 0, 0]"] ;
255 -> 257 ;
258 [label="x[45] <= 11.0\nentropy = 1.0\nsamples = 2\nvalue = [0, 1, 1, 0, 0, 0, 0, 0, 0, 0, 0]"] ;
257 -> 258 ;
259 [label="entropy = 0.0\nsamples = 1\nvalue = [0, 1, 0, 0, 0, 0, 0, 0, 0, 0, 0]"] ;
258 -> 259 ;
260 [label="entropy = 0.0\nsamples = 1\nvalue = [0, 0, 1, 0, 0, 0, 0, 0, 0, 0, 0]"] ;
258 -> 260 ;
261 [label="entropy = 0.0\nsamples = 7\nvalue = [0, 0, 14, 0, 0, 0, 0, 0, 0, 0, 0]"] ;
257 -> 261 ;
262 [label="x[39] <= 32.5\nentropy = 0.702\nsamples = 12\nvalue = [0, 17, 4, 0, 0, 0, 0, 0, 0, 0, 0]"] ;
254 -> 262 ;
263 [label="x[34] <= 14.5\nentropy = 0.485\nsamples = 11\nvalue = [0, 17, 2, 0, 0, 0, 0, 0, 0, 0, 0]"] ;
262 -> 263 ;
264 [label="x[40] <= 12.0\nentropy = 0.722\nsamples = 8\nvalue = [0, 8, 2, 0, 0, 0, 0, 0, 0, 0, 0]"] ;
263 -> 264 ;
265 [label="x[39] <= 25.5\nentropy = 0.503\nsamples = 7\nvalue = [0, 8, 1, 0, 0, 0, 0, 0, 0, 0, 0]"] ;
264 -> 265 ;
266 [label="entropy = 0.0\nsamples = 4\nvalue = [0, 5, 0, 0, 0, 0, 0, 0, 0, 0, 0]"] ;
265 -> 266 ;
267 [label="x[43] <= 19.5\nentropy = 0.811\nsamples = 3\nvalue = [0, 3, 1, 0, 0, 0, 0, 0, 0, 0, 0]"] ;
265 -> 267 ;
268 [label="entropy = 0.0\nsamples = 1\nvalue = [0, 0, 1, 0, 0, 0, 0, 0, 0, 0, 0]"] ;
267 -> 268 ;
269 [label="entropy = 0.0\nsamples = 2\nvalue = [0, 3, 0, 0, 0, 0, 0, 0, 0, 0, 0]"] ;
267 -> 269 ;
270 [label="entropy = 0.0\nsamples = 1\nvalue = [0, 0, 1, 0, 0, 0, 0, 0, 0, 0, 0]"] ;
264 -> 270 ;
271 [label="entropy = 0.0\nsamples = 3\nvalue = [0, 9, 0, 0, 0, 0, 0, 0, 0, 0, 0]"] ;
263 -> 271 ;
272 [label="entropy = 0.0\nsamples = 1\nvalue = [0, 0, 2, 0, 0, 0, 0, 0, 0, 0, 0]"] ;
262 -> 272 ;
}